digraph Tree {
node [shape=box] ;
0 [label="X[3] <= 1.75\ngini = 0.6641\nsamples = 106\nvalue = [31, 38, 37]"] ;
1 [label="X[2] <= 2.6\ngini = 0.5221\nsamples = 71\nvalue = [31, 38, 2]"] ;
0 -> 1 [labeldistance=2.5, labelangle=45, headlabel="True"] ;
2 [label="gini = 0.0\nsamples = 31\nvalue = [31, 0, 0]"] ;
1 -> 2 ;
3 [label="X[2] <= 5.45\ngini = 0.095\nsamples = 40\nvalue = [0, 38, 2]"] ;
1 -> 3 ;
4 [label="X[1] <= 2.25\ngini = 0.05\nsamples = 39\nvalue = [0, 38, 1]"] ;
3 -> 4 ;
5 [label="X[1] <= 2.1\ngini = 0.5\nsamples = 2\nvalue = [0, 1, 1]"] ;
4 -> 5 ;
6 [label="gini = 0.0\nsamples = 1\nvalue = [0, 1, 0]"] ;
5 -> 6 ;
7 [label="gini = 0.0\nsamples = 1\nvalue = [0, 0, 1]"] ;
5 -> 7 ;
8 [label="gini = 0.0\nsamples = 37\nvalue = [0, 37, 0]"] ;
4 -> 8 ;
9 [label="gini = 0.0\nsamples = 1\nvalue = [0, 0, 1]"] ;
3 -> 9 ;
10 [label="gini = 0.0\nsamples = 35\nvalue = [0, 0, 35]"] ;
0 -> 10 [labeldistance=2.5, labelangle=-45, headlabel="False"] ;
}